{"learner":{"attributes":{"scikit_learn":"{\"_estimator_type\": \"classifier\"}"},"feature_names":[],"feature_types":[],"gradient_booster":{"model":{"gbtree_model_param":{"num_parallel_tree":"1","num_trees":"60"},"iteration_indptr":[0,1,2,3,4,5,6,7,8,9,10,11,12,13,14,15,16,17,18,19,20,21,22,23,24,25,26,27,28,29,30,31,32,33,34,35,36,37,38,39,40,41,42,43,44,45,46,47,48,49,50,51,52,53,54,55,56,57,58,59,60],"tree_info":[0,0,0,0,0,0,0,0,0,0,0,0,0,0,0,0,0,0,0,0,0,0,0,0,0,0,0,0,0,0,0,0,0,0,0,0,0,0,0,0,0,0,0,0,0,0,0,0,0,0,0,0,0,0,0,0,0,0,0,0],"trees":[{"base_weights":[-1.9357254E-8,-5.145258E-1,5.429044E0,-6.002755E-2,4.6616626E-1,2.7696234E-1,6.2189996E-1],"categories":[],"categories_nodes":[],"categories_segments":[],"categories_sizes":[],"default_left":[0,0,0,0,0,0,0],"id":0,"left_children":[1,3,5,-1,-1,-1,-1],"loss_changes":[4.273366E3,6.2303625E2,2.609956E2,0E0,0E0,0E0,0E0],"parents":[2147483647,0,0,1,1,2,2],"right_children":[2,4,6,-1,-1,-1,-1],"split_conditions":[3.8588166E-2,3.56014E-2,2.336027E-3,-6.002755E-2,4.6616626E-1,2.7696234E-1,6.2189996E-1],"split_indices":[1,2,2,0,0,0,0],"split_type":[0,0,0,0,0,0,0],"sum_hessian":[1.5278174E3,1.3963834E3,1.3143396E2,1.3744973E3,2.1886154E1,3.1132177E1,1.0030179E2],"tree_param":{"num_deleted":"0","num_feature":"3","num_nodes":"7","size_leaf_vector":"1"}},{"base_weights":[-1.1933746E-2,-6.0182595E-1,2.9524102E0,-7.229459E-2,1.2465411E-1,1.7564796E-1,3.7531117E-1],"categories":[],"categories_nodes":[],"categories_segments":[],"categories_sizes":[],"default_left":[0,0,0,0,0,0,0],"id":1,"left_children":[1,3,5,-1,-1,-1,-1],"loss_changes":[2.6833074E3,2.8741772E2,2.3728589E2,0E0,0E0,0E0,0E0],"parents":[2147483647,0,0,1,1,2,2],"right_children":[2,4,6,-1,-1,-1,-1],"split_conditions":[1.38645675E-2,5.3247623E-3,5.455395E-3,-7.229459E-2,1.2465411E-1,1.7564796E-1,3.7531117E-1],"split_indices":[1,0,2,0,0,0,0],"split_type":[0,0,0,0,0,0,0],"sum_hessian":[1.532492E3,1.2788109E3,2.536811E2,1.2007377E3,7.807319E1,1.030135E2,1.506676E2],"tree_param":{"num_deleted":"0","num_feature":"3","num_nodes":"7","size_leaf_vector":"1"}},{"base_weights":[-1.6829792E-2,-6.278484E-1,2.0719278E0,-7.812337E-2,3.3640496E-2,7.746521E-2,2.6137218E-1],"categories":[],"categories_nodes":[],"categories_segments":[],"categories_sizes":[],"default_left":[0,0,0,0,0,0,0],"id":2,"left_children":[1,3,5,-1,-1,-1,-1],"loss_changes":[1.9421763E3,1.7439279E2,2.4004565E2,0E0,0E0,0E0,0E0],"parents":[2147483647,0,0,1,1,2,2],"right_children":[2,4,6,-1,-1,-1,-1],"split_conditions":[7.948312E-3,1.4635971E-3,1.6231224E-3,-7.812337E-2,3.3640496E-2,7.746521E-2,2.6137218E-1],"split_indices":[1,0,2,0,0,0,0],"split_type":[0,0,0,0,0,0,0],"sum_hessian":[1.519741E3,1.1763313E3,3.434096E2,1.01505475E3,1.6127657E2,1.0188503E2,2.4152457E2],"tree_param":{"num_deleted":"0","num_feature":"3","num_nodes":"7","size_leaf_vector":"1"}},{"base_weights":[-1.9398762E-2,-6.0110193E-1,1.6747805E0,-7.5063154E-2,2.6997993E-2,6.185898E-2,2.1829347E-1],"categories":[],"categories_nodes":[],"categories_segments":[],"categories_sizes":[],"default_left":[0,0,0,0,0,0,0],"id":3,"left_children":[1,3,5,-1,-1,-1,-1],"loss_changes":[1.4785402E3,1.456677E2,2.0445923E2,0E0,0E0,0E0,0E0],"parents":[2147483647,0,0,1,1,2,2],"right_children":[2,4,6,-1,-1,-1,-1],"split_conditions":[7.531371E-3,1.4635971E-3,9.991475E-4,-7.5063154E-2,2.6997993E-2,6.185898E-2,2.1829347E-1],"split_indices":[1,0,0,0,0,0,0],"split_type":[0,0,0,0,0,0,0],"sum_hessian":[1.4982587E3,1.1157922E3,3.824665E2,9.5243567E2,1.633565E2,1.2495885E2,2.5750763E2],"tree_param":{"num_deleted":"0","num_feature":"3","num_nodes":"7","size_leaf_vector":"1"}},{"base_weights":[-2.0711564E-2,-6.60343E-1,1.2339272E0,-7.0608556E-2,9.020354E-2,-1.19299535E-2,1.651556E-1],"categories":[],"categories_nodes":[],"categories_segments":[],"categories_sizes":[],"default_left":[0,0,0,0,0,0,0],"id":4,"left_children":[1,3,5,-1,-1,-1,-1],"loss_changes":[1.1833359E3,7.043347E1,2.8158997E2,0E0,0E0,0E0,0E0],"parents":[2147483647,0,0,1,1,2,2],"right_children":[2,4,6,-1,-1,-1,-1],"split_conditions":[3.4953107E-3,8.152207E-3,4.951816E-4,-7.0608556E-2,9.020354E-2,-1.19299535E-2,1.651556E-1],"split_indices":[1,2,2,0,0,0,0],"split_type":[0,0,0,0,0,0,0],"sum_hessian":[1.4725347E3,9.756229E2,4.9691174E2,9.4840405E2,2.721887E1,1.17357376E2,3.7955438E2],"tree_param":{"num_deleted":"0","num_feature":"3","num_nodes":"7","size_leaf_vector":"1"}},{"base_weights":[-2.152442E-2,-6.380503E-1,1.0470665E0,-7.625126E-2,-1.215222E-2,2.8784115E-2,1.6829495E-1],"categories":[],"categories_nodes":[],"categories_segments":[],"categories_sizes":[],"default_left":[0,0,0,0,0,0,0],"id":5,"left_children":[1,3,5,-1,-1,-1,-1],"loss_changes":[9.532424E2,5.889261E1,2.550893E2,0E0,0E0,0E0,0E0],"parents":[2147483647,0,0,1,1,2,2],"right_children":[2,4,6,-1,-1,-1,-1],"split_conditions":[3.2696303E-3,8.4749307E-4,1.7380442E-3,-7.625126E-2,-1.215222E-2,2.8784115E-2,1.6829495E-1],"split_indices":[1,0,0,0,0,0,0],"split_type":[0,0,0,0,0,0,0],"sum_hessian":[1.4448927E3,9.16512E2,5.2838074E2,7.381674E2,1.7834456E2,2.4149529E2,2.8688544E2],"tree_param":{"num_deleted":"0","num_feature":"3","num_nodes":"7","size_leaf_vector":"1"}},{"base_weights":[-2.1690236E-2,-4.8149705E-1,1.1877426E0,-7.196566E-2,7.6768594E-3,-5.859269E-3,1.4516912E-1],"categories":[],"categories_nodes":[],"categories_segments":[],"categories_sizes":[],"default_left":[0,0,0,0,0,0,0],"id":6,"left_children":[1,3,5,-1,-1,-1,-1],"loss_changes":[7.8815344E2,1.3657997E2,1.2851617E2,0E0,0E0,0E0,0E0],"parents":[2147483647,0,0,1,1,2,2],"right_children":[2,4,6,-1,-1,-1,-1],"split_conditions":[2.2223685E-3,1.7950534E-3,2.4955205E-3,-7.196566E-2,7.6768594E-3,-5.859269E-3,1.4516912E-1],"split_indices":[2,1,1,0,0,0,0],"split_type":[0,0,0,0,0,0,0],"sum_hessian":[1.415245E3,1.0258394E3,3.8940567E2,7.188742E2,3.0696518E2,6.819144E1,3.2121423E2],"tree_param":{"num_deleted":"0","num_feature":"3","num_nodes":"7","size_leaf_vector":"1"}},{"base_weights":[-2.1421898E-2,-3.8918796E-1,1.2763561E0,-5.1884383E-2,9.64705E-2,7.248422E-2,1.6894285E-1],"categories":[],"categories_nodes":[],"categories_segments":[],"categories_sizes":[],"default_left":[0,0,0,0,0,0,0],"id":7,"left_children":[1,3,5,-1,-1,-1,-1],"loss_changes":[6.613059E2,1.9001096E2,6.847568E1,0E0,0E0,0E0,0E0],"parents":[2147483647,0,0,1,1,2,2],"right_children":[2,4,6,-1,-1,-1,-1],"split_conditions":[2.3996776E-2,7.1600797E-3,1.2444866E-1,-5.1884383E-2,9.64705E-2,7.248422E-2,1.6894285E-1],"split_indices":[1,0,1,0,0,0,0],"split_type":[0,0,0,0,0,0,0],"sum_hessian":[1.3835352E3,1.0785846E3,3.0495065E2,9.848837E2,9.370082E1,1.3177112E2,1.7317952E2],"tree_param":{"num_deleted":"0","num_feature":"3","num_nodes":"7","size_leaf_vector":"1"}},{"base_weights":[-2.0549355E-2,-5.8333564E-1,7.203596E-1,-7.165688E-2,-1.5906097E-2,2.9055322E-2,1.4092253E-1],"categories":[],"categories_nodes":[],"categories_segments":[],"categories_sizes":[],"default_left":[0,0,0,0,0,0,0],"id":8,"left_children":[1,3,5,-1,-1,-1,-1],"loss_changes":[5.6418396E2,4.335199E1,1.72531E2,0E0,0E0,0E0,0E0],"parents":[2147483647,0,0,1,1,2,2],"right_children":[2,4,6,-1,-1,-1,-1],"split_conditions":[2.5850846E-3,6.265354E-4,1.0029385E-2,-7.165688E-2,-1.5906097E-2,2.9055322E-2,1.4092253E-1],"split_indices":[1,0,2,0,0,0,0],"split_type":[0,0,0,0,0,0,0],"sum_hessian":[1.3510377E3,7.679353E2,5.831025E2,5.8388983E2,1.8404547E2,3.5994345E2,2.23159E2],"tree_param":{"num_deleted":"0","num_feature":"3","num_nodes":"7","size_leaf_vector":"1"}},{"base_weights":[-1.9850688E-2,-4.318468E-1,8.662062E-1,-6.8422005E-2,-1.552011E-3,2.7448166E-2,1.2326379E-1],"categories":[],"categories_nodes":[],"categories_segments":[],"categories_sizes":[],"default_left":[0,0,0,0,0,0,0],"id":9,"left_children":[1,3,5,-1,-1,-1,-1],"loss_changes":[4.8237854E2,9.4757996E1,9.060147E1,0E0,0E0,0E0,0E0],"parents":[2147483647,0,0,1,1,2,2],"right_children":[2,4,6,-1,-1,-1,-1],"split_conditions":[1.8092737E-3,1.2620691E-3,1.8273453E-3,-6.8422005E-2,-1.552011E-3,2.7448166E-2,1.2326379E-1],"split_indices":[2,1,0,0,0,0,0],"split_type":[0,0,0,0,0,0,0],"sum_hessian":[1.3193721E3,9.009593E2,4.1841278E2,5.6052875E2,3.4043054E2,1.6068423E2,2.5772855E2],"tree_param":{"num_deleted":"0","num_feature":"3","num_nodes":"7","size_leaf_vector":"1"}},{"base_weights":[-1.9088654E-2,-3.2789963E-1,9.9113435E-1,-5.396269E-2,3.4273118E-2,5.0811093E-2,1.3691328E-1],"categories":[],"categories_nodes":[],"categories_segments":[],"categories_sizes":[],"default_left":[0,0,0,0,0,0,0],"id":10,"left_children":[1,3,5,-1,-1,-1,-1],"loss_changes":[4.030686E2,1.4068292E2,5.4533752E1,0E0,0E0,0E0,0E0],"parents":[2147483647,0,0,1,1,2,2],"right_children":[2,4,6,-1,-1,-1,-1],"split_conditions":[2.3996776E-2,1.3020482E-3,1.2444866E-1,-5.396269E-2,3.4273118E-2,5.0811093E-2,1.3691328E-1],"split_indices":[1,0,1,0,0,0,0],"split_type":[0,0,0,0,0,0,0],"sum_hessian":[1.2899774E3,9.8848645E2,3.01491E2,7.514415E2,2.3704494E2,1.3338715E2,1.6810387E2],"tree_param":{"num_deleted":"0","num_feature":"3","num_nodes":"7","size_leaf_vector":"1"}},{"base_weights":[-1.8064074E-2,-2.7825955E-1,1.0657814E0,-6.1339E-2,1.2654779E-2,7.6565996E-2,1.325951E-1],"categories":[],"categories_nodes":[],"categories_segments":[],"categories_sizes":[],"default_left":[0,0,0,0,0,0,0],"id":11,"left_children":[1,3,5,-1,-1,-1,-1],"loss_changes":[3.5577316E2,1.380842E2,1.805487E1,0E0,0E0,0E0,0E0],"parents":[2147483647,0,0,1,1,2,2],"right_children":[2,4,6,-1,-1,-1,-1],"split_conditions":[9.125871E-3,1.2620691E-3,5.401883E-2,-6.1339E-2,1.2654779E-2,7.6565996E-2,1.325951E-1],"split_indices":[2,1,2,0,0,0,0],"split_type":[0,0,0,0,0,0,0],"sum_hessian":[1.2595032E3,1.0162729E3,2.4323026E2,5.557036E2,4.6056924E2,1.1477422E2,1.2845604E2],"tree_param":{"num_deleted":"0","num_feature":"3","num_nodes":"7","size_leaf_vector":"1"}},{"base_weights":[-1.7061034E-2,-4.4878072E-1,5.56255E-1,-4.7947537E-2,1.5560679E-1,-4.127788E-2,7.484993E-2],"categories":[],"categories_nodes":[],"categories_segments":[],"categories_sizes":[],"default_left":[0,0,0,0,0,0,0],"id":12,"left_children":[1,3,5,-1,-1,-1,-1],"loss_changes":[3.0537723E2,4.405568E1,9.9042435E1,0E0,0E0,0E0,0E0],"parents":[2147483647,0,0,1,1,2,2],"right_children":[2,4,6,-1,-1,-1,-1],"split_conditions":[8.1047195E-4,1.8054807E-1,9.485291E-4,-4.7947537E-2,1.5560679E-1,-4.127788E-2,7.484993E-2],"split_indices":[2,1,1,0,0,0,0],"split_type":[0,0,0,0,0,0,0],"sum_hessian":[1.2317799E3,7.027847E2,5.2899524E2,6.929365E2,9.848158E0,8.738284E1,4.4161237E2],"tree_param":{"num_deleted":"0","num_feature":"3","num_nodes":"7","size_leaf_vector":"1"}},{"base_weights":[-1.6289327E-2,-3.870413E-1,5.7052505E-1,-4.55652E-2,1.3552156E-1,-2.933769E-2,7.690072E-2],"categories":[],"categories_nodes":[],"categories_segments":[],"categories_sizes":[],"default_left":[0,0,0,0,0,0,0],"id":13,"left_children":[1,3,5,-1,-1,-1,-1],"loss_changes":[2.6306586E2,8.919035E1,8.0502625E1,0E0,0E0,0E0,0E0],"parents":[2147483647,0,0,1,1,2,2],"right_children":[2,4,6,-1,-1,-1,-1],"split_conditions":[1.0652174E-3,1.8054807E-1,3.1912356E-4,-4.55652E-2,1.3552156E-1,-2.933769E-2,7.690072E-2],"split_indices":[0,1,2,0,0,0,0],"split_type":[0,0,0,0,0,0,0],"sum_hessian":[1.2071353E3,7.3996344E2,4.671718E2,7.12638E2,2.7325457E1,8.719105E1,3.7998077E2],"tree_param":{"num_deleted":"0","num_feature":"3","num_nodes":"7","size_leaf_vector":"1"}},{"base_weights":[-1.5445638E-2,-4.4139004E-1,4.4897747E-1,-5.9964683E-2,-1.26769785E-2,2.0298896E-2,1.09778814E-1],"categories":[],"categories_nodes":[],"categories_segments":[],"categories_sizes":[],"default_left":[0,0,0,0,0,0,0],"id":14,"left_children":[1,3,5,-1,-1,-1,-1],"loss_changes":[2.3435884E2,3.0691704E1,9.023446E1,0E0,0E0,0E0,0E0],"parents":[2147483647,0,0,1,1,2,2],"right_children":[2,4,6,-1,-1,-1,-1],"split_conditions":[2.5850846E-3,4.028426E-4,1.2444866E-1,-5.9964683E-2,-1.26769785E-2,2.0298896E-2,1.09778814E-1],"split_indices":[1,0,1,0,0,0,0],"split_type":[0,0,0,0,0,0,0],"sum_hessian":[1.1827152E3,6.1694E2,5.6577527E2,4.0986725E2,2.0707277E2,4.1119037E2,1.5458487E2],"tree_param":{"num_deleted":"0","num_feature":"3","num_nodes":"7","size_leaf_vector":"1"}},{"base_weights":[-1.4503068E-2,-2.2307937E-1,8.336745E-1,-5.50041E-2,6.234295E-3,5.4712202E-2,1.0999004E-1],"categories":[],"categories_nodes":[],"categories_segments":[],"categories_sizes":[],"default_left":[0,0,0,0,0,0,0],"id":15,"left_children":[1,3,5,-1,-1,-1,-1],"loss_changes":[2.0521284E2,8.691531E1,1.6864685E1,0E0,0E0,0E0,0E0],"parents":[2147483647,0,0,1,1,2,2],"right_children":[2,4,6,-1,-1,-1,-1],"split_conditions":[9.125871E-3,9.281182E-4,5.401883E-2,-5.50041E-2,6.234295E-3,5.4712202E-2,1.0999004E-1],"split_indices":[2,1,2,0,0,0,0],"split_type":[0,0,0,0,0,0,0],"sum_hessian":[1.1579349E3,9.2997955E2,2.2795534E2,4.330164E2,4.9696317E2,1.1125787E2,1.1669746E2],"tree_param":{"num_deleted":"0","num_feature":"3","num_nodes":"7","size_leaf_vector":"1"}},{"base_weights":[-1.3512531E-2,-4.5639452E-1,3.4554586E-1,-6.387008E-2,-2.255974E-2,-1.5586395E-3,6.857596E-2],"categories":[],"categories_nodes":[],"categories_segments":[],"categories_sizes":[],"default_left":[0,0,0,0,0,0,0],"id":16,"left_children":[1,3,5,-1,-1,-1,-1],"loss_changes":[1.8084476E2,2.1279724E1,7.717772E1,0E0,0E0,0E0,0E0],"parents":[2147483647,0,0,1,1,2,2],"right_children":[2,4,6,-1,-1,-1,-1],"split_conditions":[4.077476E-4,1.9383244E-4,1.6016884E-3,-6.387008E-2,-2.255974E-2,-1.5586395E-3,6.857596E-2],"split_indices":[2,0,0,0,0,0,0],"split_type":[0,0,0,0,0,0,0],"sum_hessian":[1.1352502E3,5.0817215E2,6.2707806E2,2.8292374E2,2.2524841E2,3.046502E2,3.2242786E2],"tree_param":{"num_deleted":"0","num_feature":"3","num_nodes":"7","size_leaf_vector":"1"}},{"base_weights":[-1.2874878E-2,-1.7813595E-1,8.707829E-1,-3.000157E-2,5.4514345E-2,6.593464E-2,1.16489425E-1],"categories":[],"categories_nodes":[],"categories_segments":[],"categories_sizes":[],"default_left":[0,0,0,0,0,0,0],"id":17,"left_children":[1,3,5,-1,-1,-1,-1],"loss_changes":[1.6327325E2,8.318882E1,1.0186279E1,0E0,0E0,0E0,0E0],"parents":[2147483647,0,0,1,1,2,2],"right_children":[2,4,6,-1,-1,-1,-1],"split_conditions":[7.6868765E-2,7.1600797E-3,4.3316492E-1,-3.000157E-2,5.4514345E-2,6.593464E-2,1.16489425E-1],"split_indices":[1,0,1,0,0,0,0],"split_type":[0,0,0,0,0,0,0],"sum_hessian":[1.1159856E3,9.408305E2,1.7515506E2,8.056549E2,1.3517563E2,1.03785515E2,7.1369545E1],"tree_param":{"num_deleted":"0","num_feature":"3","num_nodes":"7","size_leaf_vector":"1"}},{"base_weights":[-1.1691485E-2,-4.7545576E-1,2.621212E-1,-6.969606E-2,-3.0013505E-2,1.0078026E-2,9.277432E-2],"categories":[],"categories_nodes":[],"categories_segments":[],"categories_sizes":[],"default_left":[0,0,0,0,0,0,0],"id":18,"left_children":[1,3,5,-1,-1,-1,-1],"loss_changes":[1.3924216E2,1.5598663E1,7.395211E1,0E0,0E0,0E0,0E0],"parents":[2147483647,0,0,1,1,2,2],"right_children":[2,4,6,-1,-1,-1,-1],"split_conditions":[2.6596314E-4,9.92407E-5,1.2444866E-1,-6.969606E-2,-3.0013505E-2,1.0078026E-2,9.277432E-2],"split_indices":[2,0,1,0,0,0,0],"split_type":[0,0,0,0,0,0,0],"sum_hessian":[1.0945469E3,4.0605823E2,6.884887E2,1.7808527E2,2.2797298E2,5.5509094E2,1.333978E2],"tree_param":{"num_deleted":"0","num_feature":"3","num_nodes":"7","size_leaf_vector":"1"}},{"base_weights":[-1.091727E-2,-1.536E-1,8.098506E-1,-2.1304423E-2,1.08804286E-1,-3.4780547E-2,8.412997E-2],"categories":[],"categories_nodes":[],"categories_segments":[],"categories_sizes":[],"default_left":[0,0,0,0,0,0,0],"id":19,"left_children":[1,3,5,-1,-1,-1,-1],"loss_changes":[1.2626668E2,6.802153E1,6.1060333E0,0E0,0E0,0E0,0E0],"parents":[2147483647,0,0,1,1,2,2],"right_children":[2,4,6,-1,-1,-1,-1],"split_conditions":[1.8274538E-2,6.115157E-2,4.649373E-4,-2.1304423E-2,1.08804286E-1,-3.4780547E-2,8.412997E-2],"split_indices":[2,0,1,0,0,0,0],"split_type":[0,0,0,0,0,0,0],"sum_hessian":[1.076132E3,9.1745416E2,1.5867787E2,8.7632794E2,4.112619E1,3.9306207E0,1.5474725E2],"tree_param":{"num_deleted":"0","num_feature":"3","num_nodes":"7","size_leaf_vector":"1"}},{"base_weights":[-9.819284E-3,-4.4735667E-1,2.4180561E-1,-5.7780486E-2,-1.8596375E-2,1.013768E-2,8.297201E-2],"categories":[],"categories_nodes":[],"categories_segments":[],"categories_sizes":[],"default_left":[0,0,0,0,0,0,0],"id":20,"left_children":[1,3,5,-1,-1,-1,-1],"loss_changes":[1.16801765E2,1.310051E1,5.552692E1,0E0,0E0,0E0,0E0],"parents":[2147483647,0,0,1,1,2,2],"right_children":[2,4,6,-1,-1,-1,-1],"split_conditions":[9.281182E-4,3.4980557E-4,1.2444866E-1,-5.7780486E-2,-1.8596375E-2,1.013768E-2,8.297201E-2],"split_indices":[1,0,1,0,0,0,0],"split_type":[0,0,0,0,0,0,0],"sum_hessian":[1.0589325E3,3.8635028E2,6.725822E2,2.5692258E2,1.294277E2,5.438508E2,1.2873137E2],"tree_param":{"num_deleted":"0","num_feature":"3","num_nodes":"7","size_leaf_vector":"1"}},{"base_weights":[-9.17887E-3,-4.3775174E-1,2.1343166E-1,-5.74265E-2,-1.5998146E-2,7.256945E-3,7.761795E-2],"categories":[],"categories_nodes":[],"categories_segments":[],"categories_sizes":[],"default_left":[0,0,0,0,0,0,0],"id":21,"left_children":[1,3,5,-1,-1,-1,-1],"loss_changes":[9.959524E1,1.3440147E1,5.4408405E1,0E0,0E0,0E0,0E0],"parents":[2147483647,0,0,1,1,2,2],"right_children":[2,4,6,-1,-1,-1,-1],"split_conditions":[2.3588535E-4,3.4980557E-4,1.5847035E-2,-5.74265E-2,-1.5998146E-2,7.256945E-3,7.761795E-2],"split_indices":[2,0,0,0,0,0,0],"split_type":[0,0,0,0,0,0,0],"sum_hessian":[1.0419431E3,3.5586343E2,6.8607965E2,2.3788489E2,1.17978546E2,5.4962994E2,1.364497E2],"tree_param":{"num_deleted":"0","num_feature":"3","num_nodes":"7","size_leaf_vector":"1"}},{"base_weights":[-8.630908E-3,-4.063765E-1,2.0906156E-1,-6.0019106E-2,-2.4220224E-2,6.6123903E-3,7.295146E-2],"categories":[],"categories_nodes":[],"categories_segments":[],"categories_sizes":[],"default_left":[0,0,0,0,0,0,0],"id":22,"left_children":[1,3,5,-1,-1,-1,-1],"loss_changes":[8.922475E1,1.1452503E1,4.949711E1,0E0,0E0,0E0,0E0],"parents":[2147483647,0,0,1,1,2,2],"right_children":[2,4,6,-1,-1,-1,-1],"split_conditions":[9.281182E-4,1.9476375E-4,1.8274538E-2,-6.0019106E-2,-2.4220224E-2,6.6123903E-3,7.295146E-2],"split_indices":[1,1,2,0,0,0,0],"split_type":[0,0,0,0,0,0,0],"sum_hessian":[1.0284916E3,3.63491E2,6.650006E2,1.6547961E2,1.9801138E2,5.226003E2,1.4240033E2],"tree_param":{"num_deleted":"0","num_feature":"3","num_nodes":"7","size_leaf_vector":"1"}},{"base_weights":[-8.059896E-3,-4.073016E-1,1.7964102E-1,-5.4186907E-2,-1.4433985E-2,6.139132E-3,7.6131396E-2],"categories":[],"categories_nodes":[],"categories_segments":[],"categories_sizes":[],"default_left":[0,0,0,0,0,0,0],"id":23,"left_children":[1,3,5,-1,-1,-1,-1],"loss_changes":[7.609549E1,1.1412632E1,4.7464302E1,0E0,0E0,0E0,0E0],"parents":[2147483647,0,0,1,1,2,2],"right_children":[2,4,6,-1,-1,-1,-1],"split_conditions":[2.1713431E-4,3.4980557E-4,1.2444866E-1,-5.4186907E-2,-1.4433985E-2,6.139132E-3,7.6131396E-2],"split_indices":[2,0,1,0,0,0,0],"split_type":[0,0,0,0,0,0,0],"sum_hessian":[1.0134692E3,3.2372757E2,6.8974164E2,2.1344106E2,1.102865E2,5.7413074E2,1.156109E2],"tree_param":{"num_deleted":"0","num_feature":"3","num_nodes":"7","size_leaf_vector":"1"}},{"base_weights":[-7.466811E-3,-1.1391511E-1,6.357342E-1,-1.6349753E-2,8.82135E-2,4.6115916E-2,9.4673835E-2],"categories":[],"categories_nodes":[],"categories_segments":[],"categories_sizes":[],"default_left":[0,0,0,0,0,0,0],"id":24,"left_children":[1,3,5,-1,-1,-1,-1],"loss_changes":[6.8583725E1,4.2586933E1,7.2861176E0,0E0,0E0,0E0,0E0],"parents":[2147483647,0,0,1,1,2,2],"right_children":[2,4,6,-1,-1,-1,-1],"split_conditions":[1.8274538E-2,6.115157E-2,1.778723E-1,-1.6349753E-2,8.82135E-2,4.6115916E-2,9.4673835E-2],"split_indices":[2,0,2,0,0,0,0],"split_type":[0,0,0,0,0,0,0],"sum_hessian":[9.996375E2,8.583976E2,1.4123993E2,8.1848975E2,3.9907784E1,9.205165E1,4.9188286E1],"tree_param":{"num_deleted":"0","num_feature":"3","num_nodes":"7","size_leaf_vector":"1"}},{"base_weights":[-6.521471E-3,-3.6139935E-1,1.7561476E-1,-5.5210512E-2,-2.0232996E-2,7.90515E-3,7.378172E-2],"categories":[],"categories_nodes":[],"categories_segments":[],"categories_sizes":[],"default_left":[0,0,0,0,0,0,0],"id":25,"left_children":[1,3,5,-1,-1,-1,-1],"loss_changes":[6.3916893E1,1.006234E1,3.541928E1,0E0,0E0,0E0,0E0],"parents":[2147483647,0,0,1,1,2,2],"right_children":[2,4,6,-1,-1,-1,-1],"split_conditions":[8.894005E-4,1.9476375E-4,1.8054807E-1,-5.5210512E-2,-2.0232996E-2,7.90515E-3,7.378172E-2],"split_indices":[1,1,1,0,0,0,0],"split_type":[0,0,0,0,0,0,0],"sum_hessian":[9.868907E2,3.3438467E2,6.5250604E2,1.509465E2,1.8343816E2,5.5783374E2,9.4672295E1],"tree_param":{"num_deleted":"0","num_feature":"3","num_nodes":"7","size_leaf_vector":"1"}},{"base_weights":[-6.051816E-3,-3.3865413E-1,1.7361647E-1,-6.4466804E-2,-2.0890163E-2,9.4377315E-3,8.2521364E-2],"categories":[],"categories_nodes":[],"categories_segments":[],"categories_sizes":[],"default_left":[0,0,0,0,0,0,0],"id":26,"left_children":[1,3,5,-1,-1,-1,-1],"loss_changes":[5.836831E1,1.3467285E1,3.266678E1,0E0,0E0,0E0,0E0],"parents":[2147483647,0,0,1,1,2,2],"right_children":[2,4,6,-1,-1,-1,-1],"split_conditions":[2.1079037E-4,7.41397E-5,6.115157E-2,-6.4466804E-2,-2.0890163E-2,9.4377315E-3,8.2521364E-2],"split_indices":[0,2,0,0,0,0,0],"split_type":[0,0,0,0,0,0,0],"sum_hessian":[9.747593E2,3.4156625E2,6.3319305E2,1.005221E2,2.4104414E2,5.6556134E2,6.7631714E1],"tree_param":{"num_deleted":"0","num_feature":"3","num_nodes":"7","size_leaf_vector":"1"}},{"base_weights":[-5.6709875E-3,-3.4483323E-1,1.4512296E-1,-6.0985792E-2,-2.267246E-2,6.1136503E-3,7.198056E-2],"categories":[],"categories_nodes":[],"categories_segments":[],"categories_sizes":[],"default_left":[0,0,0,0,0,0,0],"id":27,"left_children":[1,3,5,-1,-1,-1,-1],"loss_changes":[4.950074E1,9.185848E0,3.2294876E1,0E0,0E0,0E0,0E0],"parents":[2147483647,0,0,1,1,2,2],"right_children":[2,4,6,-1,-1,-1,-1],"split_conditions":[2.1713431E-4,5.7969526E-5,5.401883E-2,-6.0985792E-2,-2.267246E-2,6.1136503E-3,7.198056E-2],"split_indices":[2,0,2,0,0,0,0],"split_type":[0,0,0,0,0,0,0],"sum_hessian":[9.658988E2,2.968789E2,6.690199E2,9.023546E1,2.0664345E2,5.8467896E2,8.434098E1],"tree_param":{"num_deleted":"0","num_feature":"3","num_nodes":"7","size_leaf_vector":"1"}},{"base_weights":[-5.261107E-3,-3.6209825E-1,1.276431E-1,-4.674363E-2,-7.380926E-3,-3.5046574E-2,2.2144813E-2],"categories":[],"categories_nodes":[],"categories_segments":[],"categories_sizes":[],"default_left":[0,0,0,0,0,0,0],"id":28,"left_children":[1,3,5,-1,-1,-1,-1],"loss_changes":[4.5424057E1,7.858753E0,3.1378132E1,0E0,0E0,0E0,0E0],"parents":[2147483647,0,0,1,1,2,2],"right_children":[2,4,6,-1,-1,-1,-1],"split_conditions":[5.463791E-4,6.4617E-4,1.4316387E-4,-4.674363E-2,-7.380926E-3,-3.5046574E-2,2.2144813E-2],"split_indices":[1,0,2,0,0,0,0],"split_type":[0,0,0,0,0,0,0],"sum_hessian":[9.558306E2,2.589218E2,6.969089E2,1.8917693E2,6.974487E1,1.1385788E2,5.8305096E2],"tree_param":{"num_deleted":"0","num_feature":"3","num_nodes":"7","size_leaf_vector":"1"}},{"base_weights":[-5.146491E-3,-7.243354E-2,6.5351456E-1,-1.2276239E-2,7.634383E-2,3.6448687E-2,8.532398E-2],"categories":[],"categories_nodes":[],"categories_segments":[],"categories_sizes":[],"default_left":[0,0,0,0,0,0,0],"id":29,"left_children":[1,3,5,-1,-1,-1,-1],"loss_changes":[4.2092426E1,3.6342117E1,4.770748E0,0E0,0E0,0E0,0E0],"parents":[2147483647,0,0,1,1,2,2],"right_children":[2,4,6,-1,-1,-1,-1],"split_conditions":[1.8054807E-1,6.115157E-2,4.3316492E-1,-1.2276239E-2,7.634383E-2,3.6448687E-2,8.532398E-2],"split_indices":[1,0,1,0,0,0,0],"split_type":[0,0,0,0,0,0,0],"sum_hessian":[9.476845E2,8.606526E2,8.703194E1,8.1257935E2,4.8073246E1,3.6719345E1,5.031259E1],"tree_param":{"num_deleted":"0","num_feature":"3","num_nodes":"7","size_leaf_vector":"1"}},{"base_weights":[-4.381078E-3,-3.848568E-1,1.0212927E-1,-7.9834096E-2,-3.1243661E-2,3.6915676E-3,6.43057E-2],"categories":[],"categories_nodes":[],"categories_segments":[],"categories_sizes":[],"default_left":[0,0,0,0,0,0,0],"id":30,"left_children":[1,3,5,-1,-1,-1,-1],"loss_changes":[3.8075325E1,5.903944E0,2.5872215E1,0E0,0E0,0E0,0E0],"parents":[2147483647,0,0,1,1,2,2],"right_children":[2,4,6,-1,-1,-1,-1],"split_conditions":[9.362762E-5,7.982587E-5,5.401883E-2,-7.9834096E-2,-3.1243661E-2,3.6915676E-3,6.43057E-2],"split_indices":[0,1,2,0,0,0,0],"split_type":[0,0,0,0,0,0,0],"sum_hessian":[9.3759094E2,2.0449208E2,7.330989E2,2.8983952E1,1.7550813E2,6.5517944E2,7.79194E1],"tree_param":{"num_deleted":"0","num_feature":"3","num_nodes":"7","size_leaf_vector":"1"}},{"base_weights":[-4.1032084E-3,-6.368261E-2,6.006615E-1,-1.10815065E-2,6.71821E-2,3.2046672E-2,8.004712E-2],"categories":[],"categories_nodes":[],"categories_segments":[],"categories_sizes":[],"default_left":[0,0,0,0,0,0,0],"id":31,"left_children":[1,3,5,-1,-1,-1,-1],"loss_changes":[3.357218E1,2.9475534E1,4.421692E0,0E0,0E0,0E0,0E0],"parents":[2147483647,0,0,1,1,2,2],"right_children":[2,4,6,-1,-1,-1,-1],"split_conditions":[1.8054807E-1,5.401883E-2,4.3316492E-1,-1.10815065E-2,6.71821E-2,3.2046672E-2,8.004712E-2],"split_indices":[1,2,1,0,0,0,0],"split_type":[0,0,0,0,0,0,0],"sum_hessian":[9.2968335E2,8.471224E2,8.2560974E1,7.9690454E2,5.0217808E1,3.545126E1,4.7109715E1],"tree_param":{"num_deleted":"0","num_feature":"3","num_nodes":"7","size_leaf_vector":"1"}},{"base_weights":[-3.432074E-3,-3.1202024E-1,1.07049145E-1,-4.1426357E-2,-5.66218E-3,-3.0643886E-2,1.8579153E-2],"categories":[],"categories_nodes":[],"categories_segments":[],"categories_sizes":[],"default_left":[0,0,0,0,0,0,0],"id":32,"left_children":[1,3,5,-1,-1,-1,-1],"loss_changes":[3.142381E1,6.3216896E0,2.2155838E1,0E0,0E0,0E0,0E0],"parents":[2147483647,0,0,1,1,2,2],"right_children":[2,4,6,-1,-1,-1,-1],"split_conditions":[5.463791E-4,6.265354E-4,1.4316387E-4,-4.1426357E-2,-5.66218E-3,-3.0643886E-2,1.8579153E-2],"split_indices":[1,0,2,0,0,0,0],"split_type":[0,0,0,0,0,0,0],"sum_hessian":[9.197236E2,2.419901E2,6.7773346E2,1.723653E2,6.962481E1,1.0795482E2,5.697786E2],"tree_param":{"num_deleted":"0","num_feature":"3","num_nodes":"7","size_leaf_vector":"1"}},{"base_weights":[-3.4002056E-3,-4.223468E-1,7.128984E-2,-6.933587E-2,-3.1394698E-2,2.105724E-3,6.489264E-2],"categories":[],"categories_nodes":[],"categories_segments":[],"categories_sizes":[],"default_left":[0,0,0,0,0,0,0],"id":33,"left_children":[1,3,5,-1,-1,-1,-1],"loss_changes":[2.8633812E1,3.8498096E0,2.252204E1,0E0,0E0,0E0,0E0],"parents":[2147483647,0,0,1,1,2,2],"right_children":[2,4,6,-1,-1,-1,-1],"split_conditions":[5.7969526E-5,1.7568425E-4,6.115157E-2,-6.933587E-2,-3.1394698E-2,2.105724E-3,6.489264E-2],"split_indices":[0,1,0,0,0,0,0],"split_type":[0,0,0,0,0,0,0],"sum_hessian":[9.1311505E2,1.3745525E2,7.7565985E2,3.7729904E1,9.972535E1,7.1455676E2,6.1103043E1],"tree_param":{"num_deleted":"0","num_feature":"3","num_nodes":"7","size_leaf_vector":"1"}},{"base_weights":[-3.2106896E-3,-4.212671E-2,7.4401695E-1,-8.322981E-3,6.717482E-2,8.034282E-2,4.827736E-3],"categories":[],"categories_nodes":[],"categories_segments":[],"categories_sizes":[],"default_left":[0,0,0,0,0,0,0],"id":34,"left_children":[1,3,5,-1,-1,-1,-1],"loss_changes":[2.6457022E1,2.5428694E1,1.8228855E0,0E0,0E0,0E0,0E0],"parents":[2147483647,0,0,1,1,2,2],"right_children":[2,4,6,-1,-1,-1,-1],"split_conditions":[4.3316492E-1,7.50781E-2,1.7038654E-1,-8.322981E-3,6.717482E-2,8.034282E-2,4.827736E-3],"split_indices":[1,0,0,0,0,0,0],"split_type":[0,0,0,0,0,0,0],"sum_hessian":[9.077508E2,8.637118E2,4.403896E1,8.175243E2,4.6187553E1,4.0431602E1,3.6073554E0],"tree_param":{"num_deleted":"0","num_feature":"3","num_nodes":"7","size_leaf_vector":"1"}},{"base_weights":[-2.654529E-3,-4.2174783E-1,6.271424E-2,-5.1400628E-2,9.8477965E-3,2.5257242E-3,7.033583E-2],"categories":[],"categories_nodes":[],"categories_segments":[],"categories_sizes":[],"default_left":[0,0,0,0,0,0,0],"id":35,"left_children":[1,3,5,-1,-1,-1,-1],"loss_changes":[2.473529E1,5.897732E0,1.8725979E1,0E0,0E0,0E0,0E0],"parents":[2147483647,0,0,1,1,2,2],"right_children":[2,4,6,-1,-1,-1,-1],"split_conditions":[1.9476375E-4,1.4635971E-3,4.3316492E-1,-5.1400628E-2,9.8477965E-3,2.5257242E-3,7.033583E-2],"split_indices":[1,0,1,0,0,0,0],"split_type":[0,0,0,0,0,0,0],"sum_hessian":[9.00927E2,1.2082702E2,7.801E2,1.0263702E2,1.819E1,7.379907E2,4.210921E1],"tree_param":{"num_deleted":"0","num_feature":"3","num_nodes":"7","size_leaf_vector":"1"}},{"base_weights":[-2.4379946E-3,-3.6453164E-1,6.803548E-2,-4.160057E-2,1.4170154E-2,3.3498842E-3,7.1403705E-2],"categories":[],"categories_nodes":[],"categories_segments":[],"categories_sizes":[],"default_left":[0,0,0,0,0,0,0],"id":36,"left_children":[1,3,5,-1,-1,-1,-1],"loss_changes":[2.289807E1,3.8683796E0,1.673516E1,0E0,0E0,0E0,0E0],"parents":[2147483647,0,0,1,1,2,2],"right_children":[2,4,6,-1,-1,-1,-1],"split_conditions":[8.4936E-5,9.101924E-3,1.778723E-1,-4.160057E-2,1.4170154E-2,3.3498842E-3,7.1403705E-2],"split_indices":[2,1,2,0,0,0,0],"split_type":[0,0,0,0,0,0,0],"sum_hessian":[8.9535815E2,1.4519121E2,7.5016693E2,1.3195245E2,1.3238761E1,7.130952E2,3.707176E1],"tree_param":{"num_deleted":"0","num_feature":"3","num_nodes":"7","size_leaf_vector":"1"}},{"base_weights":[-2.2095472E-3,-3.7584308E-1,6.1245896E-2,-6.401838E-2,-2.7966946E-2,1.5067399E-3,4.9568713E-2],"categories":[],"categories_nodes":[],"categories_segments":[],"categories_sizes":[],"default_left":[0,0,0,0,0,0,0],"id":37,"left_children":[1,3,5,-1,-1,-1,-1],"loss_changes":[2.1151403E1,3.113575E0,1.5292421E1,0E0,0E0,0E0,0E0],"parents":[2147483647,0,0,1,1,2,2],"right_children":[2,4,6,-1,-1,-1,-1],"split_conditions":[5.7969526E-5,1.7568425E-4,1.8054807E-1,-6.401838E-2,-2.7966946E-2,1.5067399E-3,4.9568713E-2],"split_indices":[0,1,1,0,0,0,0],"split_type":[0,0,0,0,0,0,0],"sum_hessian":[8.9015155E2,1.285152E2,7.6163635E2,3.277473E1,9.574046E1,6.8939276E2,7.224364E1],"tree_param":{"num_deleted":"0","num_feature":"3","num_nodes":"7","size_leaf_vector":"1"}},{"base_weights":[-2.0932811E-3,-5.9767254E-2,3.616388E-1,-8.594048E-3,6.651686E-2,-5.0238904E-2,4.0478006E-2],"categories":[],"categories_nodes":[],"categories_segments":[],"categories_sizes":[],"default_left":[0,0,0,0,0,0,0],"id":38,"left_children":[1,3,5,-1,-1,-1,-1],"loss_changes":[1.8596476E1,1.4574576E1,4.7257853E0,0E0,0E0,0E0,0E0],"parents":[2147483647,0,0,1,1,2,2],"right_children":[2,4,6,-1,-1,-1,-1],"split_conditions":[1.5847035E-2,4.3316492E-1,3.6488788E-4,-8.594048E-3,6.651686E-2,-5.0238904E-2,4.0478006E-2],"split_indices":[0,1,1,0,0,0,0],"split_type":[0,0,0,0,0,0,0],"sum_hessian":[8.8445013E2,7.6412494E2,1.2032525E2,7.383489E2,2.5776043E1,5.215934E0,1.15109314E2],"tree_param":{"num_deleted":"0","num_feature":"3","num_nodes":"7","size_leaf_vector":"1"}},{"base_weights":[-1.8054461E-3,-3.697801E-1,5.225815E-2,-4.622367E-2,1.0985821E-2,1.4158913E-3,5.280998E-2],"categories":[],"categories_nodes":[],"categories_segments":[],"categories_sizes":[],"default_left":[0,0,0,0,0,0,0],"id":39,"left_children":[1,3,5,-1,-1,-1,-1],"loss_changes":[1.7508652E1,5.050349E0,1.3904575E1,0E0,0E0,0E0,0E0],"parents":[2147483647,0,0,1,1,2,2],"right_children":[2,4,6,-1,-1,-1,-1],"split_conditions":[1.9476375E-4,1.4635971E-3,6.115157E-2,-4.622367E-2,1.0985821E-2,1.4158913E-3,5.280998E-2],"split_indices":[1,0,0,0,0,0,0],"split_type":[0,0,0,0,0,0,0],"sum_hessian":[8.781243E2,1.11740685E2,7.6638367E2,9.371262E1,1.8028065E1,7.1052386E2,5.585979E1],"tree_param":{"num_deleted":"0","num_feature":"3","num_nodes":"7","size_leaf_vector":"1"}},{"base_weights":[-1.6892488E-3,-3.1928125E-1,5.7389922E-2,-3.6899816E-2,1.3525187E-2,2.7596734E-3,6.5195E-2],"categories":[],"categories_nodes":[],"categories_segments":[],"categories_sizes":[],"default_left":[0,0,0,0,0,0,0],"id":40,"left_children":[1,3,5,-1,-1,-1,-1],"loss_changes":[1.6433104E1,3.1541452E0,1.3063275E1,0E0,0E0,0E0,0E0],"parents":[2147483647,0,0,1,1,2,2],"right_children":[2,4,6,-1,-1,-1,-1],"split_conditions":[8.4936E-5,9.101924E-3,1.778723E-1,-3.6899816E-2,1.3525187E-2,2.7596734E-3,6.5195E-2],"split_indices":[2,1,2,0,0,0,0],"split_type":[0,0,0,0,0,0,0],"sum_hessian":[8.738451E2,1.3636786E2,7.3747723E2,1.2309219E2,1.3275666E1,7.032824E2,3.419481E1],"tree_param":{"num_deleted":"0","num_feature":"3","num_nodes":"7","size_leaf_vector":"1"}},{"base_weights":[-1.5155879E-3,-3.3124542E-1,5.215586E-2,-7.844291E-2,-2.7739177E-2,2.5577124E-3,6.1335232E-2],"categories":[],"categories_nodes":[],"categories_segments":[],"categories_sizes":[],"default_left":[0,0,0,0,0,0,0],"id":41,"left_children":[1,3,5,-1,-1,-1,-1],"loss_changes":[1.5421812E1,2.7596245E0,1.1163284E1,0E0,0E0,0E0,0E0],"parents":[2147483647,0,0,1,1,2,2],"right_children":[2,4,6,-1,-1,-1,-1],"split_conditions":[5.7969526E-5,1.72939E-5,1.778723E-1,-7.844291E-2,-2.7739177E-2,2.5577124E-3,6.1335232E-2],"split_indices":[0,2,2,0,0,0,0],"split_type":[0,0,0,0,0,0,0],"sum_hessian":[8.694565E2,1.2098919E2,7.484673E2,1.1409684E1,1.09579506E2,7.156204E2,3.2846813E1],"tree_param":{"num_deleted":"0","num_feature":"3","num_nodes":"7","size_leaf_vector":"1"}},{"base_weights":[-1.454334E-3,-3.317616E-1,4.4909235E-2,-4.2170804E-2,1.0273752E-2,1.7324273E-3,5.8015127E-2],"categories":[],"categories_nodes":[],"categories_segments":[],"categories_sizes":[],"default_left":[0,0,0,0,0,0,0],"id":42,"left_children":[1,3,5,-1,-1,-1,-1],"loss_changes":[1.3288334E1,4.217407E0,1.1224871E1,0E0,0E0,0E0,0E0],"parents":[2147483647,0,0,1,1,2,2],"right_children":[2,4,6,-1,-1,-1,-1],"split_conditions":[1.9476375E-4,1.4635971E-3,4.3316492E-1,-4.2170804E-2,1.0273752E-2,1.7324273E-3,5.8015127E-2],"split_indices":[1,0,1,0,0,0,0],"split_type":[0,0,0,0,0,0,0],"sum_hessian":[8.6573895E2,1.05804184E2,7.5993475E2,8.768235E1,1.8121836E1,7.23671E2,3.626373E1],"tree_param":{"num_deleted":"0","num_feature":"3","num_nodes":"7","size_leaf_vector":"1"}},{"base_weights":[-1.3215322E-3,-3.7126723E-1,3.730777E-2,-3.1128053E-2,-7.493361E-2,2.066259E-3,8.269004E-2],"categories":[],"categories_nodes":[],"categories_segments":[],"categories_sizes":[],"default_left":[0,0,0,0,0,0,0],"id":43,"left_children":[1,3,5,-1,-1,-1,-1],"loss_changes":[1.2342718E1,1.618679E0,1.0261445E1,0E0,0E0,0E0,0E0],"parents":[2147483647,0,0,1,1,2,2],"right_children":[2,4,6,-1,-1,-1,-1],"split_conditions":[4.776926E-5,2.0185576E-3,7.462559E-1,-3.1128053E-2,-7.493361E-2,2.066259E-3,8.269004E-2],"split_indices":[2,0,1,0,0,0,0],"split_type":[0,0,0,0,0,0,0],"sum_hessian":[8.61717E2,8.065811E1,7.8105884E2,7.118656E1,9.471549E0,7.659385E2,1.5120368E1],"tree_param":{"num_deleted":"0","num_feature":"3","num_nodes":"7","size_leaf_vector":"1"}},{"base_weights":[-1.2376637E-3,-2.9814532E-1,4.5403212E-2,-7.533767E-2,-2.4795134E-2,1.5615504E-3,4.719905E-2],"categories":[],"categories_nodes":[],"categories_segments":[],"categories_sizes":[],"default_left":[0,0,0,0,0,0,0],"id":44,"left_children":[1,3,5,-1,-1,-1,-1],"loss_changes":[1.1924276E1,2.4843874E0,9.449245E0,0E0,0E0,0E0,0E0],"parents":[2147483647,0,0,1,1,2,2],"right_children":[2,4,6,-1,-1,-1,-1],"split_conditions":[5.7969526E-5,1.72939E-5,7.50781E-2,-7.533767E-2,-2.4795134E-2,1.5615504E-3,4.719905E-2],"split_indices":[0,2,0,0,0,0,0],"split_type":[0,0,0,0,0,0,0],"sum_hessian":[8.5910345E2,1.1590163E2,7.432018E2,1.0118964E1,1.0578266E2,6.956618E2,4.754002E1],"tree_param":{"num_deleted":"0","num_feature":"3","num_nodes":"7","size_leaf_vector":"1"}},{"base_weights":[-1.2210951E-3,-3.305785E-2,4.0041476E-1,-6.305044E-3,4.335592E-2,5.3124096E-2,-4.9612694E-3],"categories":[],"categories_nodes":[],"categories_segments":[],"categories_sizes":[],"default_left":[0,0,0,0,0,0,0],"id":45,"left_children":[1,3,5,-1,-1,-1,-1],"loss_changes":[1.0971337E1,1.1152957E1,3.7365828E0,0E0,0E0,0E0,0E0],"parents":[2147483647,0,0,1,1,2,2],"right_children":[2,4,6,-1,-1,-1,-1],"split_conditions":[5.401883E-2,1.8054807E-1,2.5987363E-1,-6.305044E-3,4.335592E-2,5.3124096E-2,-4.9612694E-3],"split_indices":[2,1,1,0,0,0,0],"split_type":[0,0,0,0,0,0,0],"sum_hessian":[8.5598645E2,7.9396814E2,6.2018345E1,7.468293E2,4.713882E1,4.7910084E1,1.4108262E1],"tree_param":{"num_deleted":"0","num_feature":"3","num_nodes":"7","size_leaf_vector":"1"}},{"base_weights":[-9.524019E-4,-2.949614E-1,3.881961E-2,-3.821615E-2,1.0081714E-2,9.155365E-4,4.2633396E-2],"categories":[],"categories_nodes":[],"categories_segments":[],"categories_sizes":[],"default_left":[0,0,0,0,0,0,0],"id":46,"left_children":[1,3,5,-1,-1,-1,-1],"loss_changes":[9.970925E0,3.545085E0,8.6304455E0,0E0,0E0,0E0,0E0],"parents":[2147483647,0,0,1,1,2,2],"right_children":[2,4,6,-1,-1,-1,-1],"split_conditions":[1.9476375E-4,1.4635971E-3,6.115157E-2,-3.821615E-2,1.0081714E-2,9.155365E-4,4.2633396E-2],"split_indices":[1,0,0,0,0,0,0],"split_type":[0,0,0,0,0,0,0],"sum_hessian":[8.507227E2,1.0060419E2,7.501185E2,8.246864E1,1.8135544E1,6.9773083E2,5.2387707E1],"tree_param":{"num_deleted":"0","num_feature":"3","num_nodes":"7","size_leaf_vector":"1"}},{"base_weights":[-8.907837E-4,-1.5435782E-2,7.444217E-1,-3.4366657E-3,5.4276545E-2,1.0912468E-1,4.4414908E-2],"categories":[],"categories_nodes":[],"categories_segments":[],"categories_sizes":[],"default_left":[0,0,0,0,0,0,0],"id":47,"left_children":[1,3,5,-1,-1,-1,-1],"loss_changes":[9.209993E0,8.823944E0,1.2089424E0,0E0,0E0,0E0,0E0],"parents":[2147483647,0,0,1,1,2,2],"right_children":[2,4,6,-1,-1,-1,-1],"split_conditions":[4.3971995E-1,4.95772E-1,3.3418607E-2,-3.4366657E-3,5.4276545E-2,1.0912468E-1,4.4414908E-2],"split_indices":[2,1,1,0,0,0,0],"split_type":[0,0,0,0,0,0,0],"sum_hessian":[8.475258E2,8.322632E2,1.5262578E1,8.058713E2,2.6391941E1,5.8599505E0,9.402628E0],"tree_param":{"num_deleted":"0","num_feature":"3","num_nodes":"7","size_leaf_vector":"1"}},{"base_weights":[-5.0631794E-4,-3.3687183E-1,3.121803E-2,-2.0794649E-2,-9.4800994E-2,1.7761389E-3,7.481314E-2],"categories":[],"categories_nodes":[],"categories_segments":[],"categories_sizes":[],"default_left":[0,0,0,0,0,0,0],"id":48,"left_children":[1,3,5,-1,-1,-1,-1],"loss_changes":[9.031485E0,5.550254E0,7.4481773E0,0E0,0E0,0E0,0E0],"parents":[2147483647,0,0,1,1,2,2],"right_children":[2,4,6,-1,-1,-1,-1],"split_conditions":[3.511278E-5,6.814089E-3,7.462559E-1,-2.0794649E-2,-9.4800994E-2,1.7761389E-3,7.481314E-2],"split_indices":[0,1,1,0,0,0,0],"split_type":[0,0,0,0,0,0,0],"sum_hessian":[8.4437415E2,7.194458E1,7.7242957E2,6.0518E1,1.1426583E1,7.592039E2,1.3225669E1],"tree_param":{"num_deleted":"0","num_feature":"3","num_nodes":"7","size_leaf_vector":"1"}},{"base_weights":[-5.2115193E-4,-3.2224077E-1,3.1494796E-2,-1.26462625E-2,-4.5462277E-2,-2.5627827E-2,6.579341E-3],"categories":[],"categories_nodes":[],"categories_segments":[],"categories_sizes":[],"default_left":[0,0,0,0,0,0,0],"id":49,"left_children":[1,3,5,-1,-1,-1,-1],"loss_changes":[8.6989765E0,1.9235969E0,7.5984135E0,0E0,0E0,0E0,0E0],"parents":[2147483647,0,0,1,1,2,2],"right_children":[2,4,6,-1,-1,-1,-1],"split_conditions":[4.776926E-5,3.1575433E-4,2.1012838E-4,-1.26462625E-2,-4.5462277E-2,-2.5627827E-2,6.579341E-3],"split_indices":[2,1,1,0,0,0,0],"split_type":[0,0,0,0,0,0,0],"sum_hessian":[8.4256244E2,7.543829E1,7.6712415E2,3.1221088E1,4.4217205E1,8.1004684E1,6.8611945E2],"tree_param":{"num_deleted":"0","num_feature":"3","num_nodes":"7","size_leaf_vector":"1"}},{"base_weights":[-6.4715516E-4,-1.7763626E-2,5.448146E-1,-2.9951034E-2,1.0435474E-3,6.814135E-2,1.13252895E-2],"categories":[],"categories_nodes":[],"categories_segments":[],"categories_sizes":[],"default_left":[0,0,0,0,0,0,0],"id":50,"left_children":[1,3,5,-1,-1,-1,-1],"loss_changes":[7.8657866E0,6.492751E0,1.4339018E0,0E0,0E0,0E0,0E0],"parents":[2147483647,0,0,1,1,2,2],"right_children":[2,4,6,-1,-1,-1,-1],"split_conditions":[2.4887669E-1,4.776926E-5,2.2104974E-1,-2.9951034E-2,1.0435474E-3,6.814135E-2,1.13252895E-2],"split_indices":[2,2,1,0,0,0,0],"split_type":[0,0,0,0,0,0,0],"sum_hessian":[8.404513E2,8.1581854E2,2.4632774E1,7.334843E1,7.424701E2,1.8270733E1,6.3620415E0],"tree_param":{"num_deleted":"0","num_feature":"3","num_nodes":"7","size_leaf_vector":"1"}},{"base_weights":[-5.29191E-4,-2.1965347E-1,3.8262665E-2,-7.327464E-2,-1.7193524E-2,2.4513488E-3,6.757119E-2],"categories":[],"categories_nodes":[],"categories_segments":[],"categories_sizes":[],"default_left":[0,0,0,0,0,0,0],"id":51,"left_children":[1,3,5,-1,-1,-1,-1],"loss_changes":[7.1408076E0,2.9675684E0,6.238873E0,0E0,0E0,0E0,0E0],"parents":[2147483647,0,0,1,1,2,2],"right_children":[2,4,6,-1,-1,-1,-1],"split_conditions":[6.830878E-5,1.72939E-5,4.3971995E-1,-7.327464E-2,-1.7193524E-2,2.4513488E-3,6.757119E-2],"split_indices":[0,2,2,0,0,0,0],"split_type":[0,0,0,0,0,0,0],"sum_hessian":[8.380828E2,1.2535054E2,7.127323E2,9.444318E0,1.1590622E2,6.9870044E2,1.4031852E1],"tree_param":{"num_deleted":"0","num_feature":"3","num_nodes":"7","size_leaf_vector":"1"}},{"base_weights":[-5.223584E-4,-1.2279086E-2,7.154989E-1,-3.3360792E-3,3.5682008E-2,2.6412422E-2,7.644947E-2],"categories":[],"categories_nodes":[],"categories_segments":[],"categories_sizes":[],"default_left":[0,0,0,0,0,0,0],"id":52,"left_children":[1,3,5,-1,-1,-1,-1],"loss_changes":[7.0539303E0,6.4265327E0,9.744406E-2,0E0,0E0,0E0,0E0],"parents":[2147483647,0,0,1,1,2,2],"right_children":[2,4,6,-1,-1,-1,-1],"split_conditions":[7.462559E-1,7.50781E-2,1.0852938E-3,-3.3360792E-3,3.5682008E-2,2.6412422E-2,7.644947E-2],"split_indices":[1,0,2,0,0,0,0],"split_type":[0,0,0,0,0,0,0],"sum_hessian":[8.359076E2,8.233711E2,1.25365095E1,7.797443E2,4.362676E1,1.8533381E0,1.0683171E1],"tree_param":{"num_deleted":"0","num_feature":"3","num_nodes":"7","size_leaf_vector":"1"}},{"base_weights":[-2.7202125E-4,-2.4112514E-1,3.0605735E-2,-3.2619193E-2,1.189773E-2,1.8964092E-3,6.865709E-2],"categories":[],"categories_nodes":[],"categories_segments":[],"categories_sizes":[],"default_left":[0,0,0,0,0,0,0],"id":53,"left_children":[1,3,5,-1,-1,-1,-1],"loss_changes":[6.211952E0,2.9463282E0,5.6408143E0,0E0,0E0,0E0,0E0],"parents":[2147483647,0,0,1,1,2,2],"right_children":[2,4,6,-1,-1,-1,-1],"split_conditions":[1.9476375E-4,1.4635971E-3,7.462559E-1,-3.2619193E-2,1.189773E-2,1.8964092E-3,6.865709E-2],"split_indices":[1,0,1,0,0,0,0],"split_type":[0,0,0,0,0,0,0],"sum_hessian":[8.332838E2,9.3915306E1,7.393685E2,7.604533E1,1.7869978E1,7.2748645E2,1.1882046E1],"tree_param":{"num_deleted":"0","num_feature":"3","num_nodes":"7","size_leaf_vector":"1"}},{"base_weights":[-2.084138E-4,-1.1330115E-2,6.3809913E-1,-2.79678E-2,1.3002115E-3,9.91021E-2,3.31603E-2],"categories":[],"categories_nodes":[],"categories_segments":[],"categories_sizes":[],"default_left":[0,0,0,0,0,0,0],"id":54,"left_children":[1,3,5,-1,-1,-1,-1],"loss_changes":[5.9150047E0,5.350786E0,1.2148404E0,0E0,0E0,0E0,0E0],"parents":[2147483647,0,0,1,1,2,2],"right_children":[2,4,6,-1,-1,-1,-1],"split_conditions":[4.3971995E-1,3.511278E-5,3.3418607E-2,-2.79678E-2,1.3002115E-3,9.91021E-2,3.31603E-2],"split_indices":[2,0,1,0,0,0,0],"split_type":[0,0,0,0,0,0,0],"sum_hessian":[8.311905E2,8.179215E2,1.3268996E1,6.712621E1,7.507953E2,5.129328E0,8.139668E0],"tree_param":{"num_deleted":"0","num_feature":"3","num_nodes":"7","size_leaf_vector":"1"}},{"base_weights":[-6.793488E-5,-1.9468106E-2,3.3856732E-1,-3.733697E-3,4.8687648E-2,-6.7874536E-2,3.8031694E-2],"categories":[],"categories_nodes":[],"categories_segments":[],"categories_sizes":[],"default_left":[0,0,0,0,0,0,0],"id":55,"left_children":[1,3,5,-1,-1,-1,-1],"loss_changes":[5.4629474E0,7.134191E0,2.1718473E0,0E0,0E0,0E0,0E0],"parents":[2147483647,0,0,1,1,2,2],"right_children":[2,4,6,-1,-1,-1,-1],"split_conditions":[7.50781E-2,4.3316492E-1,3.6488788E-4,-3.733697E-3,4.8687648E-2,-6.7874536E-2,3.8031694E-2],"split_indices":[0,1,1,0,0,0,0],"split_type":[0,0,0,0,0,0,0],"sum_hessian":[8.295484E2,7.854907E2,4.4057693E1,7.5961035E2,2.5880333E1,1.1353406E0,4.292235E1],"tree_param":{"num_deleted":"0","num_feature":"3","num_nodes":"7","size_leaf_vector":"1"}},{"base_weights":[-9.403755E-6,-1.9212924E-1,3.178654E-2,-2.4224205E-2,2.0912888E-2,2.0549593E-3,6.025961E-2],"categories":[],"categories_nodes":[],"categories_segments":[],"categories_sizes":[],"default_left":[0,0,0,0,0,0,0],"id":56,"left_children":[1,3,5,-1,-1,-1,-1],"loss_changes":[5.060228E0,2.415958E0,4.546447E0,0E0,0E0,0E0,0E0],"parents":[2147483647,0,0,1,1,2,2],"right_children":[2,4,6,-1,-1,-1,-1],"split_conditions":[8.4936E-5,9.101924E-3,4.3971995E-1,-2.4224205E-2,2.0912888E-2,2.0549593E-3,6.025961E-2],"split_indices":[2,1,2,0,0,0,0],"split_type":[0,0,0,0,0,0,0],"sum_hessian":[8.263737E2,1.1662867E2,7.0974506E2,1.0403243E2,1.2596238E1,6.970588E2,1.2686285E1],"tree_param":{"num_deleted":"0","num_feature":"3","num_nodes":"7","size_leaf_vector":"1"}},{"base_weights":[4.5972007E-5,-9.095909E-3,6.297481E-1,-2.5441367E-2,1.2435608E-3,4.18401E-2,8.810701E-2],"categories":[],"categories_nodes":[],"categories_segments":[],"categories_sizes":[],"default_left":[0,0,0,0,0,0,0],"id":57,"left_children":[1,3,5,-1,-1,-1,-1],"loss_changes":[4.757105E0,4.305641E0,2.5947523E-1,0E0,0E0,0E0,0E0],"parents":[2147483647,0,0,1,1,2,2],"right_children":[2,4,6,-1,-1,-1,-1],"split_conditions":[7.462559E-1,3.511278E-5,9.092577E-1,-2.5441367E-2,1.2435608E-3,4.18401E-2,8.810701E-2],"split_indices":[1,0,1,0,0,0,0],"split_type":[0,0,0,0,0,0,0],"sum_hessian":[8.243701E2,8.135448E2,1.0825314E1,6.477054E1,7.487743E2,7.327833E0,3.4974809E0],"tree_param":{"num_deleted":"0","num_feature":"3","num_nodes":"7","size_leaf_vector":"1"}},{"base_weights":[1.6564793E-4,-2.0757993E-1,2.5960775E-2,-9.691226E-3,-4.9236726E-2,5.239312E-4,3.0874962E-2],"categories":[],"categories_nodes":[],"categories_segments":[],"categories_sizes":[],"default_left":[0,0,0,0,0,0,0],"id":58,"left_children":[1,3,5,-1,-1,-1,-1],"loss_changes":[4.42064E0,2.8239408E0,4.298341E0,0E0,0E0,0E0,0E0],"parents":[2147483647,0,0,1,1,2,2],"right_children":[2,4,6,-1,-1,-1,-1],"split_conditions":[1.9476375E-4,1.3496794E-4,6.115157E-2,-9.691226E-3,-4.9236726E-2,5.239312E-4,3.0874962E-2],"split_indices":[1,1,0,0,0,0,0],"split_type":[0,0,0,0,0,0,0],"sum_hessian":[8.2292175E2,9.011528E1,7.3280646E2,6.586183E1,2.425345E1,6.837248E2,4.9081673E1],"tree_param":{"num_deleted":"0","num_feature":"3","num_nodes":"7","size_leaf_vector":"1"}},{"base_weights":[8.992669E-5,-9.047154E-3,5.666129E-1,-1.7135814E-3,5.845355E-2,9.2872575E-2,2.5506621E-2],"categories":[],"categories_nodes":[],"categories_segments":[],"categories_sizes":[],"default_left":[0,0,0,0,0,0,0],"id":59,"left_children":[1,3,5,-1,-1,-1,-1],"loss_changes":[4.259757E0,3.898446E0,1.2366753E0,0E0,0E0,0E0,0E0],"parents":[2147483647,0,0,1,1,2,2],"right_children":[2,4,6,-1,-1,-1,-1],"split_conditions":[4.3971995E-1,7.462559E-1,3.3418607E-2,-1.7135814E-3,5.845355E-2,9.2872575E-2,2.5506621E-2],"split_indices":[2,1,1,0,0,0,0],"split_type":[0,0,0,0,0,0,0],"sum_hessian":[8.2093396E2,8.088722E2,1.2061745E1,7.9895605E2,9.916121E0,4.6620245E0,7.3997197E0],"tree_param":{"num_deleted":"0","num_feature":"3","num_nodes":"7","size_leaf_vector":"1"}}]},"name":"gbtree"},"learner_model_param":{"base_score":"1.353608E-1","boost_from_average":"1","num_class":"0","num_feature":"3","num_target":"1"},"objective":{"name":"binary:logistic","reg_loss_param":{"scale_pos_weight":"1"}}},"version":[3,0,5]}